digraph Tree {
node [shape=box, style="filled, rounded", color="black", fontname=helvetica] ;
edge [fontname=helvetica] ;
0 [label=<frame 260 - right_hand - z &le; -0.015<br/>gini = 0.878<br/>samples = 27<br/>value = [4, 3, 3, 1, 3, 4, 3, 2, 4]<br/>class = pan left>, fillcolor="#e5813900"] ;
1 [label=<gini = 0.0<br/>samples = 4<br/>value = [0, 0, 0, 0, 0, 0, 0, 0, 4]<br/>class = point>, fillcolor="#e53964ff"] ;
0 -> 1 [labeldistance=2.5, labelangle=45, headlabel="True"] ;
2 [label=<frame 931 - right_hand - y &le; -0.014<br/>gini = 0.862<br/>samples = 23<br/>value = [4, 3, 3, 1, 3, 4, 3, 2, 0]<br/>class = pan left>, fillcolor="#e5813900"] ;
0 -> 2 [labeldistance=2.5, labelangle=-45, headlabel="False"] ;
3 [label=<gini = 0.0<br/>samples = 4<br/>value = [4, 0, 0, 0, 0, 0, 0, 0, 0]<br/>class = pan left>, fillcolor="#e58139ff"] ;
2 -> 3 ;
4 [label=<frame 408 - neck - x &le; 0.401<br/>gini = 0.842<br/>samples = 19<br/>value = [0, 3, 3, 1, 3, 4, 3, 2, 0]<br/>class = zoom out>, fillcolor="#3964e510"] ;
2 -> 4 ;
5 [label=<frame 886 - right_elbow - y &le; 0.473<br/>gini = 0.818<br/>samples = 15<br/>value = [0, 3, 3, 1, 3, 0, 3, 2, 0]<br/>class = pan right>, fillcolor="#d7e53900"] ;
4 -> 5 ;
6 [label=<frame 257 - left_hand - z &le; 0.013<br/>gini = 0.778<br/>samples = 12<br/>value = [0, 3, 0, 1, 3, 0, 3, 2, 0]<br/>class = pan right>, fillcolor="#d7e53900"] ;
5 -> 6 ;
7 [label=<frame 187 - head - y &le; 0.623<br/>gini = 0.716<br/>samples = 9<br/>value = [0, 3, 0, 1, 0, 0, 3, 2, 0]<br/>class = pan right>, fillcolor="#d7e53900"] ;
6 -> 7 ;
8 [label=<frame 826 - neck - y &le; -0.225<br/>gini = 0.611<br/>samples = 6<br/>value = [0, 0, 0, 1, 0, 0, 3, 2, 0]<br/>class = rotate clockwise>, fillcolor="#8139e540"] ;
7 -> 8 ;
9 [label=<gini = 0.0<br/>samples = 3<br/>value = [0, 0, 0, 0, 0, 0, 3, 0, 0]<br/>class = rotate clockwise>, fillcolor="#8139e5ff"] ;
8 -> 9 ;
10 [label=<frame 243 - neck - x &le; 0.237<br/>gini = 0.444<br/>samples = 3<br/>value = [0, 0, 0, 1, 0, 0, 0, 2, 0]<br/>class = rotate counterclockwise>, fillcolor="#e539d77f"] ;
8 -> 10 ;
11 [label=<gini = 0.0<br/>samples = 2<br/>value = [0, 0, 0, 0, 0, 0, 0, 2, 0]<br/>class = rotate counterclockwise>, fillcolor="#e539d7ff"] ;
10 -> 11 ;
12 [label=<gini = 0.0<br/>samples = 1<br/>value = [0, 0, 0, 1, 0, 0, 0, 0, 0]<br/>class = pan down>, fillcolor="#39e581ff"] ;
10 -> 12 ;
13 [label=<gini = 0.0<br/>samples = 3<br/>value = [0, 3, 0, 0, 0, 0, 0, 0, 0]<br/>class = pan right>, fillcolor="#d7e539ff"] ;
7 -> 13 ;
14 [label=<gini = 0.0<br/>samples = 3<br/>value = [0, 0, 0, 0, 3, 0, 0, 0, 0]<br/>class = zoom in>, fillcolor="#39d7e5ff"] ;
6 -> 14 ;
15 [label=<gini = 0.0<br/>samples = 3<br/>value = [0, 0, 3, 0, 0, 0, 0, 0, 0]<br/>class = pan up>, fillcolor="#64e539ff"] ;
5 -> 15 ;
16 [label=<gini = 0.0<br/>samples = 4<br/>value = [0, 0, 0, 0, 0, 4, 0, 0, 0]<br/>class = zoom out>, fillcolor="#3964e5ff"] ;
4 -> 16 ;
}